{
  "metadata": {
    "float": "f32",
    "int": "i32",
    "format": "burn_core::record::file::FilePrettyJsonRecorder",
    "version": "0.6.0",
    "settings": "DebugRecordSettings"
  },
  "item": {
    "conv2d1": {
      "weight": {
        "id": "551c4f75-15d5-40e3-85ea-2e087057371e",
        "param": {
          "value": [
            0.22541335,
            -0.20405039,
            0.18121246,
            0.31164733,
            -0.024617434,
            0.08908978,
            0.00018176436,
            -0.033479095,
            0.15233132,
            0.17934236,
            0.19763556,
            -0.27791554,
            0.12321082,
            -0.33192378,
            -0.33034283,
            0.1347808,
            -0.21117227,
            0.03240195,
            0.071237445,
            -0.32244703,
            0.0388802,
            -0.044786423,
            -0.24784057,
            -0.18593049,
            -0.12842068,
            -0.31575763,
            -0.30451787,
            0.12860799,
            -0.30703494,
            0.3010166,
            0.26578525,
            0.14678857,
            0.2602363,
            0.010810107,
            -0.10719848,
            -0.08492407,
            -0.20332825,
            0.1828613,
            -0.23809819,
            0.06902149,
            -0.026088148,
            -0.3058903,
            0.179122,
            -0.1413543,
            0.21110228,
            0.16029695,
            -0.08143595,
            0.18625358,
            -0.13324623,
            0.16232881,
            0.19007108,
            -0.008529216,
            0.14393374,
            0.22615495,
            0.15621325,
            0.1267918,
            0.21530226,
            -0.27099752,
            -0.18000826,
            0.23660615,
            -0.18597317,
            -0.18873501,
            -0.2165707,
            0.088728994,
            0.2882178,
            0.19092676,
            -0.106878966,
            -0.120271415,
            0.26635382,
            -0.20555425,
            -0.32306844,
            -0.048300266
          ],
          "shape": [
            8,
            1,
            3,
            3
          ]
        }
      },
      "bias": {
        "id": "6aab60a0-a1e2-4185-a5b7-4cdf5ba1e7ab",
        "param": {
          "value": [
            0.3159285,
            -0.2008805,
            -0.020416021,
            0.24163994,
            0.22403291,
            -0.25060636,
            -0.071956486,
            0.21662799
          ],
          "shape": [
            8
          ]
        }
      },
      "stride": [
        null,
        null
      ],
      "kernel_size": [
        null,
        null
      ],
      "dilation": [
        null,
        null
      ],
      "groups": null,
      "padding": null
    },
    "batchnormalization1": {
      "gamma": {
        "id": "db2fd9c9-f3f5-4a01-b3a0-08147902aa95",
        "param": {
          "value": [
            1.0,
            1.0,
            1.0,
            1.0,
            1.0,
            1.0,
            1.0,
            1.0
          ],
          "shape": [
            8
          ]
        }
      },
      "beta": {
        "id": "76342cd1-e006-450e-bb72-78285a301a6c",
        "param": {
          "value": [
            0.0,
            0.0,
            0.0,
            0.0,
            0.0,
            0.0,
            0.0,
            0.0
          ],
          "shape": [
            8
          ]
        }
      },
      "running_mean": {
        "id": "b271e18b-5d3f-4351-bde6-b81debc6e50b",
        "param": {
          "value": [
            0.0,
            0.0,
            0.0,
            0.0,
            0.0,
            0.0,
            0.0,
            0.0
          ],
          "shape": [
            8
          ]
        }
      },
      "running_var": {
        "id": "bcf39f3e-1d66-4c6d-91ef-4c49b520aa63",
        "param": {
          "value": [
            1.0,
            1.0,
            1.0,
            1.0,
            1.0,
            1.0,
            1.0,
            1.0
          ],
          "shape": [
            8
          ]
        }
      },
      "momentum": null,
      "epsilon": null
    },
    "linear1": {
      "weight": {
        "id": "a98e478b-3149-4b78-b422-acd75f6905df",
        "param": {
          "value": [
            -0.058228794,
            0.030148413,
            0.037404258,
            -0.05562811,
            -0.044782594,
            -0.0065338723,
            0.012673449,
            -0.0397126,
            0.038959946,
            0.012330789,
            0.003672216,
            -0.0057150573,
            0.041503806,
            -0.05287252,
            -0.006717358,
            -0.030558089,
            -0.0020077005,
            0.042874034,
            -0.034906644,
            -0.046253674,
            0.0022913478,
            -0.045312487,
            0.02866568,
            0.03777044,
            0.00018231198,
            -0.050304096,
            -0.008267749,
            0.016905252,
            0.05583011,
            -0.02328121,
            -0.03635239,
            -0.04558181,
            -0.023244105,
            0.04187235,
            0.03840323,
            -0.036408104,
            -0.04738251,
            -0.036053292,
            -0.051427487,
            -0.04455498,
            -0.053470142,
            0.0050916187,
            0.0472025,
            -0.0032347627,
            0.055509638,
            0.017827425,
            -0.035215814,
            0.003422387,
            -0.03914154,
            -0.033645872,
            0.002926536,
            -0.03759173,
            -0.045055065,
            0.007928509,
            -0.0512868,
            -0.05074827,
            0.03245115,
            -0.031115936,
            -0.044851147,
            -0.03488541,
            -0.042952105,
            0.023759913,
            0.020278785,
            0.03169441,
            0.021487702,
            -0.036219023,
            0.037411097,
            0.044144023,
            -0.056806,
            -0.040791288,
            -0.010454103,
            0.0026636384,
            0.057400916,
            0.050001714,
            -0.020133022,
            0.02000532,
            0.020242754,
            0.051889185,
            -0.056449085,
            -0.045515493,
            -0.04227134,
            -0.0072736256,
            0.049474064,
            0.03784294,
            0.04045428,
            0.04367991,
            -0.0066400543,
            0.02437849,
            -0.051534757,
            0.027674701,
            -0.02315411,
            -0.01936232,
            -0.0095461495,
            -0.03201204,
            0.0032845736,
            -0.057964962,
            -0.031233111,
            -0.0075702555,
            0.02965482,
            -0.050391763,
            -0.0391438,
            -0.006891854,
            0.051819127,
            0.02339923,
            -0.045143306,
            0.020861324,
            0.010061424,
            -0.04350826,
            0.010003585,
            0.03250983,
            0.007474404,
            -0.02051223,
            0.00005134195,
            -0.00727449,
            -0.05032477,
            0.045496244,
            0.055363003,
            -0.04271763,
            -0.026722986,
            0.01609486,
            -0.033801716,
            -0.031554896,
            0.0060390644,
            -0.042703077,
            0.023526374,
            -0.0326477,
            -0.047332056,
            -0.05208099,
            -0.017633189,
            -0.016643383,
            -0.016615972,
            0.02421755,
            -0.018564232,
            0.041070748,
            -0.017813575,
            0.025795203,
            0.03383905,
            -0.01036245,
            0.000014618039,
            -0.0001911372,
            0.048621442,
            -0.04747898,
            0.04826529,
            -0.058460083,
            -0.007313825,
            -0.04740773,
            0.009413507,
            0.055133965,
            -0.031618,
            -0.019109886,
            -0.010179095,
            0.0021577924,
            0.039453346,
            0.055506658,
            -0.044431888,
            0.035808872,
            0.043422636,
            -0.039516415,
            0.0009973571,
            -0.020637374,
            -0.021476213,
            0.02446394,
            0.009153213,
            -0.04560839,
            -0.0413716,
            -0.020741869,
            0.013914797,
            0.0076152794,
            -0.0031490996,
            -0.043161247,
            -0.018230036,
            -0.041295875,
            -0.0002573356,
            0.0056125484,
            0.0014110915,
            -0.03606626,
            -0.01316721,
            0.051876653,
            0.030256588,
            -0.003889963,
            0.021277662,
            -0.0048159026,
            -0.008359842,
            0.035770763,
            -0.00042813644,
            0.007943872,
            -0.039918423,
            -0.019572314,
            -0.035132244,
            -0.0407378,
            0.038184267,
            0.0068588816,
            0.012847614,
            -0.021145761,
            0.008060206,
            -0.023507066,
            0.017063778,
            -0.04726717,
            -0.026687749,
            -0.020939171,
            0.014713112,
            0.048094083,
            0.0083970465,
            0.02447253,
            0.00827672,
            -0.049279165,
            -0.026457943,
            0.057565954,
            -0.027914384,
            0.008905869,
            -0.050495915,
            -0.028472127,
            0.045163255,
            0.005010199,
            -0.054277815,
            -0.0044288337,
            0.052134436,
            -0.03472037,
            0.015415449,
            -0.010437097,
            -0.020565197,
            0.056090433,
            -0.012227468,
            0.056045596,
            -0.012370415,
            -0.05182333,
            -0.030488167,
            -0.054724474,
            0.015057776,
            -0.018778585,
            -0.010831002,
            0.04754443,
            0.02047148,
            -0.005180057,
            0.03833768,
            0.03442179,
            0.028106194,
            -0.028666656,
            0.037460644,
            0.03720474,
            0.034297835,
            -0.051265024,
            0.00011511147,
            0.003762845,
            -0.010239635,
            -0.0086968355,
            -0.009992637,
            -0.0202569,
            -0.021508723,
            -0.043170687,
            -0.029864842,
            -0.05485458,
            0.023107272,
            0.045018237,
            -0.0052484684,
            -0.047332294,
            0.024103146,
            -0.017319132,
            -0.052779544,
            -0.037606284,
            0.03698313,
            -0.055196695,
            -0.040775687,
            -0.03354443,
            -0.023715027,
            0.054322783,
            0.014370237,
            -0.002468612,
            0.057408858,
            -0.025294024,
            -0.040247023,
            0.016010601,
            -0.021434285,
            -0.016600441,
            -0.027633216,
            0.04577646,
            -0.03710361,
            0.03551655,
            0.033116344,
            -0.006913405,
            -0.05852277,
            -0.017618366,
            -0.036197692,
            0.008863468,
            -0.031587876,
            -0.03996961,
            0.031187233,
            -0.035563372,
            0.0003923513,
            -0.04028248,
            0.014894489,
            0.022516098,
            -0.01311015,
            -0.037594482,
            -0.04553523,
            -0.028312152,
            -0.03652855,
            -0.035942383,
            -0.052619673,
            -0.05334299,
            -0.052187294,
            -0.051810995,
            0.030577924,
            -0.032637455,
            -0.00014108047,
            0.020599622,
            0.002156712,
            0.010479834,
            0.05146761,
            0.05566183,
            -0.020857465,
            -0.019661989,
            0.04372232,
            0.0009407513,
            -0.039328806,
            -0.021671623,
            0.037782695,
            -0.024828028,
            -0.033913694,
            0.023756232,
            -0.012208089,
            0.0009193085,
            -0.039211743,
            -0.016103264,
            0.0134278275,
            0.029014546,
            0.03689665,
            0.0038130097,
            -0.05171084,
            0.028839398,
            -0.044722877,
            0.007276263,
            0.018392656,
            -0.017808456,
            0.010624681,
            -0.02612535,
            -0.008071788,
            0.011585508,
            0.0433339,
            -0.052508574,
            -0.044493563,
            -0.028752144,
            0.005470995,
            -0.03597883,
            -0.040777758,
            -0.041011043,
            -0.028155936,
            -0.013549868,
            -0.030604273,
            -0.019966394,
            0.034077268,
            -0.033642676,
            -0.023541886,
            -0.045406725,
            0.0031734668,
            0.03854646,
            -0.047584318,
            -0.042382963,
            0.057300765,
            -0.023014527,
            0.0049455203,
            -0.04039909,
            0.040570732,
            0.027048651,
            -0.05530473,
            -0.037873313,
            -0.021539688,
            0.014262605,
            0.0037561543,
            0.032787535,
            -0.0026429445,
            0.031790506,
            0.016355839,
            0.012360144,
            -0.015584853,
            0.005524028,
            0.0063629113,
            0.035381448,
            -0.055478267,
            0.042888325,
            -0.003797479,
            -0.028714389,
            0.04010586,
            0.048814576,
            -0.051401153,
            0.02254251,
            0.01699483,
            -0.00863881,
            -0.03331707,
            -0.018957026,
            -0.015794512,
            -0.052579172,
            -0.04476303,
            0.046776887,
            0.0474091,
            -0.0065225624,
            -0.028078476,
            0.009182159,
            -0.045790408,
            0.054028083,
            0.053336676,
            0.025866617,
            0.011466708,
            -0.017921522,
            0.0077843107,
            -0.03516731,
            0.039564375,
            0.04499759,
            0.04225717,
            0.004648749,
            0.032476533,
            -0.038793996,
            -0.012333993,
            0.020319957,
            -0.025569953,
            -0.03801845,
            -0.032128334,
            0.050525192,
            -0.013239268,
            -0.05222659,
            -0.04598712,
            -0.03780096,
            0.020267453,
            -0.04833929,
            0.009243768,
            -0.020035248,
            -0.058084995,
            -0.058437336,
            -0.042854875,
            0.006693881,
            -0.020257358,
            0.04834606,
            0.05067339,
            0.042458434,
            0.044426885,
            0.037462097,
            0.00049815327,
            -0.04188884,
            -0.027260616,
            0.016807813,
            -0.052492354,
            0.041151855,
            0.04132701,
            0.011493895,
            0.0076869614,
            -0.0031124614,
            -0.007956013,
            0.0027101897,
            -0.04822577,
            -0.026821215,
            -0.04103712,
            -0.04414828,
            -0.033746667,
            0.026683252,
            0.019586679,
            0.0108935125,
            -0.0009799562,
            0.04565787,
            -0.03381781,
            0.019855682,
            -0.007242929,
            -0.0396145,
            0.05485658,
            0.02441771,
            -0.039177008,
            0.010342438,
            0.029621404,
            0.029245343,
            -0.057130903,
            -0.020069133,
            0.053883117,
            0.017247055,
            -0.013334084,
            0.024807286,
            -0.035052747,
            -0.04610751,
            -0.039533366,
            -0.040881243,
            0.056264672,
            0.040205922,
            0.0095849745,
            -0.042414136,
            0.054294277,
            0.019528087,
            0.049825784,
            -0.03257317,
            -0.037904665,
            -0.01635681,
            0.05235749,
            0.016621832,
            0.01111969,
            -0.043334406,
            0.03346559,
            0.029112902,
            -0.009019524,
            0.004123155,
            -0.0028372072,
            0.048690584,
            -0.015090328,
            0.019593257,
            -0.01381316,
            -0.0026266612,
            -0.03470413,
            -0.041512825,
            0.00056741014,
            -0.04411824,
            0.025388654,
            0.025930855,
            0.01687165,
            0.03219403,
            0.033681933,
            -0.044564266,
            0.01901764,
            0.042262178,
            0.04882342,
            -0.0068456307,
            -0.023171324,
            -0.03817968,
            0.0067613535,
            -0.026307635,
            0.015917037,
            0.05850968,
            0.03528512,
            0.050935376,
            0.022763472,
            -0.02538677,
            -0.0038710423,
            -0.052144796,
            -0.009454001,
            0.022896256,
            -0.05816147,
            0.014476802,
            0.005688358,
            0.011450205,
            0.05533443,
            0.021702413,
            0.035764042,
            0.031202707,
            -0.040525325,
            -0.05398339,
            0.050247516,
            -0.037784047,
            -0.0049635842,
            0.05323844,
            -0.006188836,
            -0.025762472,
            -0.0033888035,
            -0.045580603,
            0.047912348,
            0.014374729,
            0.018406373,
            0.018482316,
            0.04743244,
            -0.04052196,
            0.033251945,
            -0.052874323,
            -0.0013451464,
            -0.035009675,
            0.03785908,
            0.026401337,
            -0.04514524,
            -0.05354668,
            0.0156192295,
            0.03116655,
            -0.04395876,
            -0.04042021,
            -0.012591302,
            -0.05216861,
            -0.04536889,
            0.049673002,
            -0.013015009,
            0.035564896,
            0.040949296,
            -0.0014972538,
            0.053631876,
            -0.033930883,
            -0.037740234,
            0.037934776,
            -0.0025294274,
            -0.047533385,
            0.02818584,
            -0.038309097,
            -0.058450352,
            -0.032838177,
            -0.020284526,
            -0.03544189,
            0.015625719,
            -0.04650723,
            0.014286187,
            0.0127551295,
            0.011812668,
            0.03620931,
            -0.033560827,
            -0.017356887,
            0.046595987,
            0.021620821,
            -0.023000132,
            0.030883927,
            -0.05763877,
            -0.024912152,
            -0.010091696,
            -0.052104823,
            -0.014820617,
            0.019133192,
            -0.033042096,
            0.037951883,
            0.0072659887,
            0.03442363,
            -0.030721998,
            -0.025194798,
            0.040855225,
            -0.030402347,
            -0.00068323687,
            0.031063747,
            0.021041784,
            0.004173029,
            0.030442405,
            0.007190142,
            -0.02639528,
            -0.004450243,
            0.026490424,
            0.011533458,
            -0.013300188,
            0.03611267,
            -0.021040022,
            0.02447315,
            -0.03988597,
            -0.051749468,
            -0.05623418,
            -0.00590254,
            -0.0454517,
            0.04277241,
            -0.010154124,
            -0.05729045,
            0.0049551986,
            0.040066328,
            0.049266886,
            -0.008028138,
            0.030224081,
            -0.058873802,
            0.03242038,
            -0.00402645,
            -0.008112673,
            -0.01370506,
            -0.035179336,
            -0.0293359,
            -0.038169786,
            -0.008726001,
            0.0017671809,
            0.027908783,
            0.04284813,
            0.03630949,
            -0.05724826,
            0.053505022,
            0.023826104,
            -0.009661026,
            -0.030029805,
            -0.009356592,
            -0.05430897,
            -0.016597725,
            -0.053423736,
            0.053740803,
            0.038254555,
            -0.021387257,
            -0.034905445,
            0.028187249,
            -0.033234127,
            -0.0016052127,
            -0.0353719,
            -0.034073353,
            -0.020796575,
            -0.0071110576,
            -0.00843031,
            -0.0021295808,
            -0.03870081,
            0.037240747,
            0.028461855,
            -0.02328265,
            -0.055520937,
            0.020678367,
            -0.01735251,
            0.015829276,
            -0.0004438348,
            0.054106187,
            0.05394696,
            -0.003698904,
            -0.0000372231,
            -0.031856183,
            -0.028659113,
            0.04350468,
            -0.003019739,
            -0.0055751503,
            0.023964468,
            -0.0459804,
            -0.04291501,
            -0.03600192,
            -0.027311116,
            0.020061221,
            -0.03684353,
            0.0001113452,
            0.0015096776,
            0.010600407,
            0.0009659901,
            -0.017393056,
            0.0043829195,
            -0.018288087,
            -0.025385708,
            -0.030107412,
            0.013163995,
            -0.011665188,
            -0.022722531,
            -0.026437383,
            -0.053243343,
            -0.0555939,
            -0.027527604,
            -0.006054502,
            0.0038135909,
            0.02154294,
            0.04756705,
            0.005122576,
            0.04871055,
            -0.0388996,
            0.012802344,
            -0.046061404,
            0.054324295,
            0.013994057,
            -0.023415763,
            0.033757087,
            -0.048544664,
            0.048461888,
            0.018866997,
            -0.039477132,
            -0.032975204,
            0.029545974,
            -0.03758472,
            -0.033407375,
            0.05396467,
            0.027964655,
            0.054165553,
            -0.053327724,
            -0.045336276,
            0.038082484,
            -0.025533207,
            -0.03977111,
            0.027431693,
            -0.03441558,
            0.0009098165,
            -0.036996998,
            -0.016421176,
            -0.026273932,
            0.049249712,
            0.027293582,
            -0.051215887,
            0.013383765,
            0.005691517,
            -0.020553488,
            -0.043296292,
            -0.025216516,
            -0.0104823,
            0.026637081,
            0.040792685,
            -0.03714995,
            -0.01566353,
            -0.047746003,
            0.018835936,
            -0.04600276,
            -0.031831626,
            0.04892421,
            0.013980921,
            -0.04962453,
            0.04609629,
            -0.009049673,
            0.019701432,
            0.018664595,
            0.05253767,
            0.058885586,
            0.02484234,
            0.037478384,
            -0.045625776,
            0.038636927,
            0.024745654,
            0.00388873,
            -0.043124277,
            -0.0111994855,
            -0.054000698,
            0.025215756,
            0.024852712,
            0.026137177,
            0.006898407,
            0.0001402311,
            -0.03535196,
            0.03256419,
            -0.023874056,
            -0.021323789,
            -0.030339086,
            0.006779719,
            -0.005499322,
            0.054341916,
            -0.056038175,
            -0.047381353,
            0.030765485,
            0.025264781,
            0.055800367,
            -0.020251513,
            -0.0020547435,
            -0.008962136,
            0.042551886,
            0.01439837,
            -0.05145487,
            0.03503569,
            0.007732462,
            0.024479363,
            0.019491855,
            -0.003781464,
            0.013939802,
            -0.009668965,
            -0.04853771,
            0.002907928,
            0.047460783,
            0.011753637,
            0.014521558,
            -0.0316551,
            0.011060294,
            0.0007944256,
            -0.03207226,
            -0.035867754,
            -0.048021078,
            0.029959735,
            0.025430884,
            -0.05304989,
            -0.009537622,
            0.0040166415,
            0.017389704,
            -0.024856202,
            0.026728664,
            0.042687815,
            -0.018908333,
            -0.03542081,
            -0.03860921,
            -0.011459678,
            0.020763528,
            -0.034984425,
            0.031196836,
            0.017396156,
            0.049048197,
            0.041944716,
            -0.0073829703,
            -0.02448507,
            0.026984286,
            0.052004408,
            0.035161387,
            -0.0444198,
            -0.044274427,
            -0.0532177,
            -0.010403998,
            0.028022755,
            0.0096989535,
            0.0076392703,
            0.032409925,
            -0.054164525,
            -0.054289546,
            -0.02111477,
            -0.044354584,
            -0.04858783,
            0.011866149,
            -0.0135451965,
            -0.043297246,
            0.048937943,
            0.024205636,
            -0.012853701,
            -0.033341296,
            -0.044344723,
            -0.005882673,
            -0.0115314275,
            0.046624254,
            -0.045522656,
            -0.053683594,
            -0.038830288,
            0.03921507,
            -0.02398787,
            0.027220163,
            -0.030489277,
            0.014953617,
            0.028064292,
            -0.046501115,
            0.03921934,
            -0.012593318,
            -0.03619841,
            -0.028541002,
            -0.011861198,
            -0.014799882,
            -0.058723647,
            0.025720064,
            -0.05157144,
            -0.051554263,
            0.01732378,
            0.0413122,
            -0.055502728,
            -0.035012398,
            -0.045297354,
            -0.00694035,
            -0.040260427,
            -0.007788282,
            0.036019642,
            -0.0060059614,
            -0.027667299,
            -0.00024696812,
            -0.014279775,
            0.046655703,
            0.03497191,
            -0.011707336,
            -0.005278852,
            0.01453248,
            -0.035008177,
            0.041248757,
            -0.040848143,
            -0.021722417,
            0.04497681,
            -0.03706837,
            0.05807517,
            0.044057053,
            -0.044510417,
            -0.022416566,
            -0.039842777,
            0.024560768,
            0.023642633,
            -0.05831253,
            -0.0011473149,
            -0.0009947903,
            0.0071874373,
            -0.02316964,
            -0.04657529,
            0.051764395,
            -0.0067488626,
            0.017018255,
            -0.038580615,
            -0.0007980652,
            0.040097903,
            0.032544058,
            -0.009285603,
            0.018338028,
            -0.017824773,
            -0.053862695,
            0.017696675,
            -0.018873543,
            0.05165894,
            0.01391324,
            0.03695197,
            -0.02314037,
            0.007717263,
            -0.0069555715,
            0.03473137,
            0.015160527,
            0.044520903,
            0.025177699,
            -0.01842323,
            -0.0017131492,
            0.054578986,
            0.035345715,
            0.008340988,
            -0.011101816,
            0.028143,
            0.019996133,
            -0.020356499,
            -0.013500571,
            -0.026993103,
            -0.057912827,
            0.052097518,
            0.054431673,
            0.029941771,
            -0.0043827295,
            -0.052569125,
            0.046272162,
            0.048022132,
            -0.0067093484,
            -0.0030821487,
            -0.053715605,
            0.03081223,
            -0.005225163,
            -0.04535432,
            0.008210998,
            0.00231608,
            0.043034676,
            0.012123238,
            0.016435575,
            -0.026105028,
            -0.034674905,
            0.052075353,
            -0.000011309981,
            -0.018371325,
            -0.040529996,
            -0.038394496,
            0.04313465,
            -0.0013867915,
            -0.024234165,
            -0.029344918,
            0.053765785,
            -0.014945921,
            0.0375573,
            0.04383106,
            -0.057136614,
            -0.031884477,
            -0.055958882,
            -0.010668997,
            0.014572088,
            -0.009314649,
            -0.048668846,
            -0.039569423,
            -0.00045070425,
            -0.015413132,
            0.04843923,
            -0.05321909,
            0.012413334,
            0.009630632,
            0.0066558607,
            -0.00037477538,
            0.043076646,
            0.02442323,
            0.030118894,
            -0.051586695,
            0.010481644,
            0.050272997,
            -0.04654216,
            0.012831751,
            0.03152043,
            -0.043890968,
            0.015175078,
            0.023171801,
            0.018623907,
            -0.040169038,
            0.051903848,
            -0.05805767,
            0.05007084,
            -0.030177578,
            0.05369963,
            0.050026868,
            -0.017919231,
            -0.048332404,
            0.029156726,
            0.039863188,
            0.057986397,
            0.012322936,
            -0.055154,
            -0.0365348,
            0.001968179,
            -0.04864656,
            0.0112827085,
            0.00284902,
            -0.038053174,
            0.022134762,
            0.023566838,
            0.0008024052,
            0.042231526,
            0.052596387,
            0.048726995,
            -0.017924275,
            0.012763951,
            -0.0070871525,
            0.02185687,
            0.04062627,
            0.030677121,
            -0.035015866,
            -0.023827791,
            -0.05463076,
            -0.039124064,
            -0.04111742,
            -0.04105161,
            -0.00012758374,
            0.0076367967,
            -0.056926996,
            0.031021718,
            -0.032807805,
            -0.013462625,
            0.028822038,
            -0.050526936,
            -0.04471738,
            -0.027333621,
            -0.029328482,
            0.032475065,
            0.022590008,
            -0.025249321,
            -0.01092964,
            0.0011003688,
            0.039449524,
            -0.043377116,
            -0.004521247,
            0.0557277,
            -0.029023135,
            0.045865145,
            0.027691294,
            0.03678834,
            -0.0042852163,
            0.024289127,
            -0.020234197,
            0.04365026,
            -0.04309317,
            -0.034042753,
            0.0105824955,
            0.050595958,
            -0.01951116,
            -0.04435359,
            0.041101668,
            0.018468294,
            -0.011420835,
            0.030746926,
            0.044989724,
            -0.048024494,
            -0.052320655,
            -0.0026742257,
            -0.033253513,
            0.039866764,
            0.022474464,
            -0.012543041,
            -0.045368917,
            0.045936394,
            -0.0032149628,
            0.019558925,
            0.020348389,
            -0.043122374,
            0.013210457,
            0.0055694915,
            0.013986584,
            -0.0089829415,
            -0.054025404,
            -0.052093767,
            -0.05250334,
            0.02906533,
            0.058147263,
            -0.035534874,
            0.008137818,
            -0.044519223,
            -0.052961912,
            0.019547004,
            0.0433976,
            0.040816363,
            0.0034396537,
            -0.0051005147,
            -0.0040660053,
            -0.034305293,
            -0.039303258,
            -0.008672424,
            -0.033063725,
            0.00053135306,
            -0.024374653,
            0.045939576,
            -0.017114185,
            -0.04161178,
            0.03637133,
            -0.053963132,
            0.038928647,
            0.051898565,
            0.027633872,
            -0.012407638,
            0.031180505,
            0.0016098544,
            0.027504068,
            -0.0574567,
            0.0045840107,
            -0.014646906,
            0.053441707,
            -0.033570856,
            -0.045860723,
            0.044685055,
            0.018339526,
            -0.042732332,
            -0.004923146,
            0.030718025,
            -0.039113805,
            -0.05162252,
            -0.023924168,
            -0.005441904,
            0.010699492,
            -0.013055887,
            0.041709077,
            0.045876954,
            -0.0018142052,
            -0.0251331,
            -0.0149436295,
            -0.0134948455,
            0.012441564,
            -0.003993105,
            0.01402903,
            0.05217022,
            -0.052874368,
            -0.016986478,
            0.024677422,
            -0.0194491,
            -0.018852621,
            -0.017845571,
            -0.0015995279,
            0.03298795,
            0.054920305,
            -0.0037705116,
            -0.040875353,
            0.021868583,
            0.025289636,
            -0.050823398,
            0.0069813468,
            0.024023745,
            -0.006060809,
            0.03822929,
            0.022468481,
            -0.05186977,
            -0.036409892,
            0.017875548,
            -0.03554889,
            0.007376943,
            0.030349206,
            0.03238317,
            -0.004947014,
            -0.05657599,
            -0.029845243,
            -0.00823253,
            0.056022953,
            0.013223011,
            0.00700159,
            -0.002517052,
            -0.020470921,
            -0.053309433,
            -0.019661576,
            0.0013956912,
            0.027384829,
            0.018508177,
            -0.002628643,
            -0.022031423,
            -0.027969098,
            0.03597216,
            -0.058439415,
            0.04214901,
            0.023311663,
            0.046180774,
            -0.0066981055,
            0.031923424,
            0.034228098,
            0.047477182,
            -0.030009456,
            -0.044511482,
            0.015930612,
            -0.013964776,
            -0.05377512,
            0.0019879267,
            -0.03389755,
            0.038617674,
            0.021615338,
            0.016798701,
            -0.011508357,
            0.030757409,
            0.027241338,
            0.009487774,
            -0.047638465,
            -0.0060506873,
            -0.023006722,
            0.04909927,
            0.021934126,
            -0.05384137,
            0.018793587,
            -0.019236475,
            0.012608927,
            0.04337493,
            -0.028791223,
            -0.057973124,
            -0.00976732,
            0.02415147,
            -0.05203371,
            -0.02593248,
            -0.056082543,
            -0.034594927,
            0.03769845,
            -0.011935741,
            0.04094189,
            -0.02120632,
            -0.03992535,
            0.015287351,
            -0.02147517,
            -0.01450561,
            -0.043607898,
            -0.05248558,
            0.057690736,
            0.018478181,
            -0.00011376664,
            0.055851337,
            0.0082258545,
            -0.005409591,
            0.014437858,
            -0.020270906,
            -0.0225587,
            0.0434728,
            0.044532996,
            0.030161027,
            0.027062763,
            0.0027437396,
            0.029791642,
            0.050712947,
            0.03995588,
            0.035453845,
            -0.00685668,
            0.058263626,
            0.056048464,
            0.043700013,
            -0.034165956,
            0.020973232,
            -0.0064390115,
            -0.033118255,
            0.012776297,
            0.023939904,
            0.011008095,
            -0.042658884,
            0.013611335,
            -0.020854667,
            -0.046838798,
            -0.025634129,
            0.05808937,
            0.025165815,
            0.044383276,
            0.001154732,
            0.01672833,
            -0.04317318,
            -0.031238211,
            -0.006484665,
            0.030571733,
            0.019387376,
            -0.013256077,
            -0.0042942986,
            -0.016788412,
            -0.011804897,
            0.041481372,
            -0.009781562,
            -0.017967392,
            -0.056989796,
            0.037538137,
            -0.018794663,
            -0.039181612,
            0.014380086,
            0.009113837,
            -0.003249269,
            0.026997183,
            0.049962956,
            0.053019803,
            -0.023281455,
            0.022615004,
            0.020426217,
            0.044595886,
            0.023237314,
            -0.01135724,
            -0.013867129,
            -0.013082299,
            -0.049691007,
            0.012442175,
            0.024705444,
            0.022291478,
            0.037297163,
            -0.024465319,
            -0.0037306435,
            0.0043231063,
            -0.030477995,
            0.020439353,
            -0.010415856,
            0.006652314,
            -0.054122902,
            -0.02547288,
            0.01088604,
            -0.018503878,
            -0.022959094,
            -0.021453124,
            0.030810859,
            0.035553183,
            0.030701395,
            0.0081133135,
            0.0271318,
            -0.05215707,
            0.025468055,
            -0.012942292,
            0.026327524,
            0.055977467,
            -0.016220167,
            -0.029121779,
            -0.057539932,
            0.039146643,
            0.003658291,
            -0.0033305436,
            -0.05506871,
            0.045004647,
            0.012600388,
            -0.020984858,
            0.004459653,
            -0.023864485,
            -0.052279115,
            -0.016590256,
            0.031045552,
            0.041717645,
            0.01036704,
            0.028439332,
            0.003622111,
            -0.00685513,
            -0.006885797,
            -0.033103112,
            0.00548945,
            0.018853966,
            0.03639092,
            -0.00043593347,
            -0.0009558201,
            -0.00065366924,
            -0.038194563,
            0.04024263,
            -0.0037577637,
            -0.023088485,
            -0.0035307743,
            -0.011714857,
            -0.00031856075,
            -0.03756116,
            -0.030869244,
            0.045329783,
            0.051796492,
            -0.006057456,
            -0.02572092,
            -0.008817978,
            0.033590753,
            -0.010788117,
            0.0026929528,
            0.0005874932,
            -0.031176327,
            -0.0464042,
            0.017329965,
            0.028603982,
            0.009739462,
            0.036998916,
            0.028481591,
            0.009012971,
            0.0043488555,
            0.013548877,
            0.018099558,
            -0.003302008,
            0.022096012,
            -0.03370984,
            -0.04077845,
            -0.0053566173,
            -0.021195643,
            0.033675406,
            0.039022196,
            -0.010175984,
            0.034703974,
            0.015018892,
            0.031113062,
            0.016997013,
            0.0053439178,
            -0.0007802993,
            -0.03960283,
            0.053074118,
            -0.020774238,
            -0.026461806,
            -0.0057382025,
            -0.04615368,
            -0.015873268,
            0.037672203,
            0.014697652,
            0.05668505,
            0.044360552,
            -0.03466799,
            -0.04721802,
            0.02838144,
            0.008295763,
            0.028014164,
            -0.038695425,
            -0.028064245,
            -0.0033057444,
            0.056146007,
            0.007218983,
            0.058636803,
            0.041863274,
            -0.0031240918,
            0.015254434,
            0.0012926012,
            -0.0053730197,
            -0.030565422,
            -0.02209843,
            0.02632964,
            -0.020940647,
            0.00006799027,
            0.034784507,
            -0.019439582,
            -0.028773872,
            0.0019006543,
            -0.02163257,
            0.015797976,
            -0.0434582,
            0.0137070455,
            -0.016177401,
            0.009814013,
            0.04238865,
            0.031682607,
            -0.055369888,
            0.04954155,
            -0.047174506,
            -0.0502196,
            -0.012447417,
            -0.056316704,
            -0.012459606,
            -0.010496601,
            -0.020702545,
            0.018748704,
            0.023874719,
            -0.014508069,
            0.011751462,
            0.04754221,
            -0.037647743,
            -0.05560507,
            -0.024039552,
            0.035876583,
            -0.04544796,
            -0.030133607,
            0.057728577,
            0.016080532,
            -0.0029908754,
            0.0020512529,
            -0.0007423833,
            0.013283249,
            0.013164457,
            0.028835762,
            -0.040110566,
            0.05255236,
            0.029371325,
            0.04593162,
            -0.036062565,
            0.04864874,
            -0.04416638,
            0.049077515,
            0.026696716,
            0.0037981607,
            0.0007320829,
            -0.03836251,
            -0.013284609,
            0.0510615,
            -0.051371854,
            0.0029846728,
            -0.052363385,
            0.010549974,
            0.0586269,
            -0.019718796,
            0.017650988,
            0.01803628,
            -0.05447959,
            0.049606945,
            -0.04698818,
            -0.032642692,
            -0.052253686,
            0.00052024797,
            -0.00751378,
            0.021893207,
            0.032042872,
            -0.038946237,
            0.035899524,
            0.057411376,
            -0.01604253,
            0.036500413,
            0.054742802,
            -0.045515932,
            0.035332832,
            -0.019406214,
            -0.015359029,
            -0.0076722503,
            -0.019425433,
            -0.041916676,
            -0.027686363,
            -0.017541211,
            -0.04594391,
            -0.011271983,
            0.03847369,
            -0.029319484,
            0.027623307,
            0.05251604,
            -0.044364326,
            0.0074739866,
            -0.023858264,
            0.030227635,
            -0.050231773,
            0.023947079,
            -0.045711987,
            0.02194022,
            0.010166559,
            -0.014326874,
            0.029415514,
            0.01868165,
            0.03819258,
            -0.020749398,
            0.004671354,
            -0.024014577,
            -0.036347393,
            0.04492108,
            0.026357982,
            0.04801144,
            -0.049606428,
            0.04745009,
            0.022537779,
            -0.045825742,
            0.010045152,
            0.018224578,
            0.052319612,
            0.026148293,
            -0.057068124,
            0.040543642,
            0.040797237,
            -0.03969483,
            -0.055117413,
            0.049299713,
            0.052927557,
            -0.015196603,
            0.050448317,
            -0.011567928,
            0.05690482,
            -0.016265571,
            0.019061621,
            0.004263472,
            0.031957638,
            0.031637687,
            0.032227468,
            0.014473233,
            0.053162124,
            -0.04597941,
            0.03294729,
            -0.040378332,
            0.02489752,
            0.04184797,
            -0.038153753,
            0.05326766,
            0.014543984,
            -0.011055138,
            -0.030422235,
            -0.050096046,
            0.049863916,
            -0.026924081,
            -0.021511093,
            0.058348503,
            0.03137775,
            -0.026984245,
            0.038821276,
            0.051433075,
            0.024349649,
            0.0073421113,
            -0.05824446,
            0.057581384,
            0.052951355,
            -0.024097018,
            0.023298237,
            -0.03322235,
            -0.022349674,
            0.053132895,
            -0.056664746,
            -0.0053658336,
            -0.05824773,
            -0.01599992,
            0.046802673,
            -0.025376555,
            -0.051126026,
            0.028581504,
            0.056863163,
            0.024046134,
            -0.043700412,
            -0.05073259,
            -0.015279632,
            0.057718556,
            -0.044271253,
            0.016023476,
            0.0069793947,
            0.0005481392,
            0.023236442,
            -0.01684897,
            -0.036013506,
            0.034369435,
            -0.019422624,
            0.03979599,
            -0.049016688,
            -0.020751197,
            0.016741652,
            0.015307177,
            -0.017691795,
            0.033106405,
            0.016362388,
            -0.046895333,
            0.043348987,
            -0.009748355,
            0.044337768,
            0.00022453815,
            0.054591697,
            -0.05275687,
            -0.023508713,
            -0.025837395,
            -0.0140947625,
            0.019442778,
            -0.006790463,
            -0.058139335,
            -0.040115073,
            -0.05355545,
            0.008936692,
            0.0013113581,
            0.012945551,
            -0.019536413,
            -0.049344223,
            0.031742353,
            -0.05807469,
            0.028045978,
            0.04180971,
            0.0012538768,
            -0.0212241,
            -0.016322434,
            0.040913608,
            -0.0065602623,
            -0.030227179,
            -0.058377966,
            -0.042462233,
            0.012146775,
            0.056402925,
            0.021273013,
            0.012518305,
            0.0184304,
            0.01334371,
            0.051867057,
            -0.044548005,
            0.029694099,
            0.0055243187,
            0.008609746,
            0.04429849,
            -0.04532156,
            0.026211385,
            -0.050419748,
            -0.0068437494,
            0.031623352,
            -0.028964186,
            -0.000828214,
            0.049095836,
            -0.018145792,
            -0.050447896,
            -0.046215754,
            0.028269853,
            0.002684459,
            -0.053468168,
            0.018824633,
            -0.029099815,
            -0.035713524,
            0.045241427,
            0.016703766,
            -0.0127743855,
            -0.013293762,
            -0.0525223,
            -0.0033987723,
            0.046409275,
            -0.03408432,
            0.037514072,
            -0.010046221,
            -0.033242,
            0.0074864514,
            0.014021229,
            -0.040461417,
            0.01586822,
            -0.015095279,
            -0.028375767,
            -0.013049163,
            -0.013622809,
            0.005652774,
            0.00009375438,
            -0.053885616,
            -0.032788906,
            0.05497097,
            0.03973389,
            0.046849903,
            -0.01893514,
            0.051131036,
            0.04469968,
            -0.052451808,
            0.022677992,
            -0.01651673,
            -0.0081553385,
            -0.036525007,
            0.02015346,
            0.0052504875,
            -0.006580796,
            0.048340786,
            0.013959188,
            0.054894898,
            -0.031646635,
            -0.055430066,
            -0.0339294,
            -0.05210612,
            0.040641416,
            0.05452979,
            0.056790393,
            -0.053717367,
            -0.00005994737,
            -0.022647377,
            -0.038452655,
            0.010025125,
            0.04359253,
            -0.0057033114,
            -0.005188156,
            -0.014717773,
            0.041919414,
            0.0017223582,
            0.055432986,
            -0.010892574,
            -0.010059603,
            0.046284843,
            0.01092675,
            0.05333874,
            -0.022936169,
            -0.010822531,
            -0.057371613,
            0.016205888,
            -0.0407914,
            0.0012816787,
            -0.030921156,
            -0.015606232,
            -0.029283475,
            -0.0037787594,
            -0.054500706,
            0.01146863,
            0.019016687,
            -0.040729403,
            0.013394203,
            0.035968576,
            -0.02322276,
            -0.038901687,
            0.039400782,
            0.038727242,
            0.012998793,
            0.03854214,
            -0.026647765,
            0.021807868,
            -0.045305803,
            -0.0040437803,
            0.03441943,
            0.02127504,
            0.021273028,
            0.053445775,
            0.0040452667,
            0.058323596,
            -0.006162297,
            0.03576969,
            0.05877651,
            -0.048999272,
            0.056876328,
            0.053886194,
            -0.044577543,
            0.022626523,
            0.038693536,
            0.0025843754,
            -0.025304567,
            -0.031032275,
            -0.047911532,
            -0.040093005,
            0.016026441,
            0.029735524,
            -0.03753394,
            0.0082975365,
            0.026768502,
            -0.048886895,
            -0.012348663,
            0.041406926,
            0.023401182,
            0.052522976,
            -0.015950013,
            -0.05698055,
            0.05387641,
            -0.057738442,
            0.026267502,
            -0.017116979,
            0.0021425337,
            0.028338466,
            -0.013630424,
            0.01204874,
            0.041241188,
            -0.045863155,
            0.023978945,
            -0.049722437,
            0.028574046,
            0.026679222,
            -0.019762833,
            0.012626652,
            -0.018310383,
            -0.016158808,
            -0.015903972,
            0.057164486,
            -0.024342012,
            -0.00970592,
            0.051365737,
            0.011179667,
            -0.021743968,
            0.034487356,
            -0.032152425,
            0.027424272,
            -0.046740174,
            0.047171462,
            0.043086264,
            0.014926467,
            0.016221847,
            0.041090313,
            0.050497252,
            -0.034631915,
            0.016051326,
            0.039371904,
            -0.03682569,
            -0.047196068,
            0.053873826,
            0.05210067,
            -0.025347501,
            0.04431786,
            0.03190724,
            0.027497072,
            0.038579304,
            -0.019696586,
            0.010629814,
            0.032020655,
            0.019409541,
            0.014205437,
            0.038077418,
            0.055073004,
            -0.04033806,
            -0.04525588,
            -0.04504162,
            -0.00901299,
            -0.00028338283,
            0.053164247,
            0.0051545464,
            -0.021118332,
            0.022839162,
            -0.034391023,
            -0.0475438,
            -0.041963056,
            -0.049216457,
            0.0015841313,
            -0.05863612,
            -0.04325852,
            0.051560987,
            -0.04291865,
            -0.040881965,
            0.029595476,
            0.014915239,
            0.02420203,
            0.017966073,
            -0.025868125,
            0.04383594,
            -0.03551057,
            0.0127629,
            -0.011677571,
            0.041654233,
            -0.043005254,
            -0.01791808,
            0.005904261,
            -0.057242706,
            -0.036206372,
            0.020319078,
            -0.056585003,
            -0.05352708,
            0.002285827,
            0.012748454,
            -0.04362461,
            -0.02174946,
            0.038429003,
            0.0016209595,
            0.032570478,
            0.05688053,
            -0.008517485,
            -0.016699381,
            0.029441785,
            0.03335717,
            -0.02828187,
            0.021698494,
            -0.04664193,
            0.05815119,
            -0.022785436,
            -0.016137451,
            -0.039992034,
            -0.01888733,
            -0.01777839,
            0.03626888,
            -0.03285344,
            -0.056675646,
            0.01893567,
            0.02170894,
            -0.046091184,
            -0.054895014,
            0.013171498,
            0.008278694,
            -0.038750574,
            0.035441313,
            -0.03282145,
            0.0015464649,
            -0.0086722635,
            0.044318553,
            -0.0344994,
            -0.0038195774,
            0.020416308,
            -0.057006948,
            -0.02243099,
            -0.030145667,
            0.03914812,
            -0.027287457,
            0.009727653,
            0.021210406,
            -0.056248475,
            0.0037035756,
            0.053103354,
            -0.0015697889,
            -0.054886132,
            -0.05222926,
            -0.0038633682,
            -0.055344686,
            -0.017454155,
            -0.029761638,
            0.025143351,
            0.024966884,
            -0.047191847,
            -0.033018306,
            0.033872668,
            -0.004344791,
            -0.03683926,
            -0.027275488,
            -0.052859552,
            -0.019229226,
            0.013631966,
            -0.022624891,
            -0.024880886,
            -0.02589187,
            -0.015544847,
            -0.058722466,
            -0.0114072,
            -0.053609505,
            0.021508757,
            -0.056021016,
            -0.030293869,
            -0.018158887,
            0.04081775,
            0.0015068129,
            -0.052133918,
            -0.056033336,
            -0.04078016,
            -0.033337235,
            0.024910126,
            0.01804727,
            0.05193491,
            0.038316,
            0.026695836,
            -0.0023509003,
            -0.036697682,
            0.016477402,
            0.013882499,
            -0.024097376,
            0.0060104914,
            -0.04283487,
            -0.014245901,
            0.043152515,
            -0.04240695,
            0.013047073,
            -0.0021896549,
            -0.030532455,
            -0.019028403,
            0.025597703,
            -0.03892657,
            0.04389369,
            0.0489305,
            -0.0090888925,
            -0.046298347,
            0.047857206,
            0.026755493,
            0.020076599,
            -0.017874002,
            -0.026034862,
            0.05200788,
            0.010741163,
            0.013495039,
            0.055369426,
            -0.036905363,
            -0.04279343,
            -0.003339205,
            -0.020480812,
            0.017265525,
            0.015393656,
            -0.056710757,
            -0.031005975,
            -0.049842793,
            0.021632884,
            0.043761585,
            -0.028312989,
            0.02752519,
            0.05158752,
            0.020031605,
            -0.02706585,
            0.004582759,
            -0.01417926,
            0.040080693,
            0.006983895,
            0.034013573,
            -0.0066535547,
            -0.009685338,
            -0.056236103,
            -0.0028828941,
            0.0042486303,
            -0.00039954484,
            -0.030724308,
            -0.025197703,
            -0.047015183,
            0.037313472,
            0.04652367,
            0.05438232,
            0.034092266,
            0.045874853,
            -0.036161028,
            -0.035825215,
            -0.020109702,
            0.051856738,
            -0.016642008,
            -0.052220825,
            -0.014154837,
            -0.0015307739,
            0.055166777,
            -0.023482222,
            -0.055886842,
            0.05546407,
            0.01364008,
            0.030542407,
            -0.03552679,
            -0.038153008,
            0.00030313432,
            0.053996626,
            -0.003189981,
            -0.021677397,
            0.012806546,
            0.043346647,
            -0.030639628,
            -0.058216874,
            -0.05039593,
            0.022133108,
            0.013776023,
            0.05849335,
            -0.0044868253,
            0.041437786,
            -0.00021423772,
            0.03890037,
            0.015321132,
            -0.032236207,
            0.00870857,
            0.022868056,
            -0.056986347,
            -0.028224347,
            0.0370637,
            -0.037848454,
            0.02060588,
            -0.0059008114,
            0.0410815,
            0.011753608,
            0.03530198,
            -0.008675929,
            0.04827759,
            0.057303656,
            -0.014077604,
            0.024684567,
            -0.055895872,
            -0.029336771,
            0.035526898,
            -0.034786154,
            0.053430717,
            -0.031659625,
            -0.04716399,
            -0.020218294,
            -0.006384995,
            0.018349614,
            -0.03815739,
            0.053794693,
            0.02338877,
            0.008976821,
            0.045024265,
            0.00502469,
            -0.008849144,
            0.027288977,
            0.019997414,
            0.006890472,
            -0.028796658,
            -0.0029733144,
            -0.049485955,
            0.05218375,
            -0.008570716,
            -0.0063893087,
            0.008020502,
            0.032622192,
            -0.017426677,
            0.039417136,
            -0.047657255,
            -0.055272795,
            -0.04153588,
            0.03501972,
            0.049278866,
            -0.022883665,
            0.042087924,
            0.024587821,
            -0.012073513,
            -0.05860748,
            -0.03826598,
            -0.005410243,
            -0.042170256,
            0.01797371,
            0.04420248,
            0.000245329,
            0.017063696,
            -0.047776874,
            -0.0019082353,
            0.000110045075,
            -0.014133181,
            0.051949304,
            -0.02323844,
            0.040030222,
            0.04234549,
            -0.05872154,
            0.010539565,
            -0.046004593,
            0.030549426,
            -0.00060546026,
            0.05743431,
            0.053710464,
            -0.020942882,
            0.021099497,
            0.017789718,
            -0.02755439,
            -0.05458409,
            0.043744322,
            0.007677961,
            0.04921907,
            0.028574456,
            0.04008211,
            -0.052646022,
            -0.016481664,
            0.027415764,
            -0.0048346594,
            0.016258102,
            -0.02755719,
            0.045016605,
            -0.05191662,
            -0.018814396,
            -0.05062239,
            -0.02627398,
            0.021313194,
            0.054724623,
            0.03153662,
            0.00016870722,
            -0.008939978,
            -0.012331389,
            0.0067171417,
            -0.052046742,
            -0.02182645,
            -0.033039954,
            -0.016690146,
            -0.026489224,
            0.001325842,
            0.021084543,
            0.042710613,
            0.032367054,
            0.047797803,
            0.015763756,
            -0.045258235,
            0.04552428,
            -0.04151402,
            -0.009004999,
            0.035769697,
            -0.029538611,
            0.0026834346,
            -0.0374376,
            -0.056016117,
            0.042508136,
            -0.035380136,
            -0.038912892,
            0.015677664,
            0.036731716,
            -0.020349525,
            -0.018767584,
            -0.016166113,
            -0.03547714,
            -0.0448594,
            -0.021549232,
            0.056523602,
            0.014057066,
            0.054083195,
            0.051920753,
            0.018527556,
            -0.046413817,
            -0.03157071,
            0.01537228,
            0.038505133,
            0.013795864,
            0.03462967,
            0.058152977,
            0.019790407,
            0.05292884,
            0.016233485,
            -0.011019308,
            -0.00060719624,
            0.055391345,
            -0.023343306,
            -0.058187645,
            -0.0004799068,
            0.03750049,
            0.054613326,
            0.0028389692,
            -0.047009617,
            -0.017412592,
            0.008711237,
            0.021050196,
            -0.038037486,
            -0.04909186,
            0.018157471,
            0.04947133,
            -0.0228617,
            -0.05428694,
            -0.046757154,
            0.0091338195,
            -0.02413283,
            -0.042379983,
            0.053718943,
            -0.045802735,
            -0.048151474,
            -0.017199762,
            -0.028750598,
            0.049443644,
            -0.017128732,
            -0.056484245,
            -0.007022135,
            0.027096886,
            -0.015987009,
            0.027561065,
            -0.018301468,
            -0.013954479,
            -0.03414064,
            -0.049029388,
            -0.04582344,
            0.05031323,
            0.006431807,
            -0.019871693,
            0.020532284,
            -0.016315531,
            0.050476503,
            0.030747596,
            0.008861359,
            0.015193533,
            -0.022483483,
            0.015297782,
            -0.058554146,
            0.0011699907,
            -0.0019665435,
            0.058872987,
            -0.02403193,
            0.04819333,
            -0.03698332,
            -0.010318905,
            -0.044127394,
            0.013911974,
            -0.033916827,
            -0.0100728385,
            -0.016685802,
            -0.03980994,
            -0.056876224,
            0.0019984841,
            -0.007017646,
            0.029490065,
            -0.020272825,
            -0.045682218,
            0.051674884,
            0.016420875,
            -0.05360598,
            -0.022800863,
            -0.05546654,
            0.05084305,
            -0.005676225,
            0.021585565,
            -0.018709771,
            0.013088133,
            -0.057880078,
            -0.05329689,
            0.051533584,
            0.037520055,
            -0.012469076,
            -0.023463432,
            -0.017432619,
            -0.03122717,
            0.01099721,
            -0.013252951,
            0.0003800504,
            -0.024242256,
            0.0003313087,
            0.018216658,
            -0.032446086,
            -0.01483538,
            0.036402103,
            0.05314153,
            0.056172412,
            -0.021393768,
            0.018689696,
            0.047143716,
            -0.009029694,
            0.04092319,
            -0.021579798,
            0.051174063,
            -0.052356493,
            0.018911202,
            -0.036260914,
            0.011832405,
            -0.03566389,
            -0.009994537,
            0.007938039,
            0.058140058,
            -0.031162586,
            0.016281288,
            -0.015699316,
            0.024440352,
            -0.025353745,
            0.037249524,
            0.004336614,
            0.008757416,
            -0.038280927,
            -0.026625302,
            0.048464287,
            -0.028430985,
            -0.031959876,
            0.03167436,
            0.021217514,
            0.019397032,
            0.011944283,
            0.0059427284,
            0.0048725866,
            0.05282675,
            0.020684835,
            -0.01805235,
            0.004348863,
            0.010686982,
            -0.020158894,
            -0.015804205,
            -0.03510751,
            0.004446756,
            -0.0045818314,
            0.04500505,
            -0.033903815,
            -0.05625294,
            -0.042985648,
            -0.024304323,
            -0.045923922,
            0.0073663928,
            0.0010779127,
            0.002140034,
            0.0033932999,
            0.024948563,
            0.030288134,
            -0.021531899,
            0.012649652,
            -0.009416759,
            -0.011809666,
            0.058529396,
            0.0070588924,
            -0.017803855,
            0.0126093365,
            0.055355985,
            0.014382768,
            0.01524223,
            0.04940575,
            -0.040302016,
            -0.011382472,
            -0.010601226,
            0.039266955,
            0.007777538,
            -0.004774291,
            -0.015695471,
            -0.010861017,
            0.05269378,
            -0.0578513,
            -0.000110987574,
            0.046672177,
            0.043569136,
            0.041554842,
            0.019410033,
            0.01903433,
            0.0014537871,
            0.0025106892,
            -0.020147394,
            -0.033956394,
            -0.0043001026,
            -0.025111698,
            0.015742686,
            -0.056129057,
            -0.011846926,
            0.01907121,
            -0.0040248483,
            0.0055723228,
            0.0037161,
            0.024719883,
            -0.0234297,
            0.016534228,
            -0.0020173937,
            -0.049242277,
            0.05195934,
            -0.056520008,
            -0.027252812,
            0.03238124,
            0.02815399,
            0.038332228,
            0.050553586,
            0.041345734,
            0.0075565837,
            0.05368385,
            0.029926669,
            0.050246287,
            -0.019130316,
            -0.016127963,
            -0.015488103,
            0.029847447,
            -0.023780897,
            -0.0068697967,
            -0.05412671,
            0.031686153,
            -0.050972294,
            -0.042358547,
            0.010294672,
            -0.010708846,
            -0.031086735,
            0.018870596,
            -0.05734503,
            -0.027002487,
            0.040489275,
            -0.0043891445,
            -0.046884898,
            -0.015174579,
            0.049362008,
            0.014120128,
            0.013159063,
            0.025278945,
            -0.0014034063,
            0.0037577413,
            -0.019264445,
            -0.05195091,
            0.027201582,
            -0.053083148,
            -0.013445977,
            -0.045677237,
            0.00016219541,
            0.044280674,
            -0.007296618,
            0.009674933,
            0.00066523254,
            0.040641833,
            -0.0030248314,
            -0.057395473,
            0.031483393,
            0.05744231,
            0.051347006,
            -0.05287854,
            0.009618532,
            -0.037582204,
            0.00085427985,
            0.014907826,
            -0.050211642,
            -0.009588543,
            0.04598446,
            -0.0109883025,
            -0.030692192,
            -0.025399905,
            0.013937678,
            0.0025988296,
            0.008929085,
            -0.045727856,
            -0.0208196,
            -0.011714645,
            -0.018742986,
            0.014949042,
            -0.031198952,
            -0.018123005,
            -0.04137703,
            0.0064072646,
            0.027270894,
            -0.009005666,
            0.0310711,
            0.005050022,
            0.009576846,
            0.03763232,
            0.037166517,
            -0.030981144,
            -0.03445824,
            0.031926196,
            0.0027228482,
            -0.026155498,
            0.0069472305,
            -0.002170816,
            0.039280105,
            -0.039534017,
            0.0048233084,
            0.034518402,
            0.028677467,
            -0.03494235,
            0.050050173,
            0.047932122,
            0.015348207,
            0.0311752,
            0.058171507,
            0.051498692,
            -0.020368814,
            -0.027680736,
            -0.023795865,
            0.026821766,
            0.04436337,
            -0.04197234,
            -0.010226209,
            0.026955854,
            0.05380703,
            0.01536629,
            -0.03773997,
            0.0066055916,
            -0.029198058,
            0.049716678,
            0.026844602,
            0.045653354,
            0.032302547,
            -0.0036392473,
            -0.031011954,
            -0.020006526,
            -0.018923976,
            0.04574142,
            0.018185902,
            0.03853715,
            0.013919342,
            -0.028111078,
            0.05314788,
            -0.022031091,
            -0.050790064,
            0.00007626414,
            -0.037719257,
            0.03495272,
            -0.006574977,
            -0.020590484,
            0.017618928,
            -0.021766141,
            -0.0074128583,
            -0.05149865,
            0.0030013323,
            -0.009906482,
            -0.051770456,
            0.033492643,
            -0.05877077,
            -0.02364567,
            0.05394565,
            0.03645802,
            0.033263203,
            -0.012854662,
            0.0576978,
            0.043736156,
            0.0073118247,
            0.023658503,
            0.014013682,
            0.032262806,
            0.058283363,
            -0.00023115426,
            -0.005088549,
            -0.048716705,
            -0.022677027,
            0.033441182,
            -0.055740852,
            -0.03318319,
            0.02705111,
            0.007993493,
            0.012275431,
            0.043311883,
            0.03940488,
            0.05520321,
            0.010462206,
            0.011838365,
            0.029575225,
            -0.035338588,
            -0.054363996,
            0.05419923,
            -0.04805118,
            -0.0050604045,
            -0.00534809,
            0.011042457,
            0.037528787,
            -0.047783226,
            -0.014241394,
            0.011376377,
            0.039436165,
            0.009639699,
            0.048034776,
            0.02200621,
            0.043169174,
            -0.043460544,
            -0.000836961,
            -0.03480401,
            0.030628081,
            0.005483929,
            0.053761225,
            -0.058887295,
            -0.026163153,
            -0.011509463,
            -0.044435516,
            0.050918948,
            0.02411772,
            -0.0007237792,
            -0.000044014305,
            -0.010342669,
            -0.012865987,
            -0.019216679,
            0.006054323,
            -0.0273663,
            0.04539408,
            0.016863998,
            0.0009832084,
            -0.043492105,
            -0.028718287,
            0.056784544,
            0.05555268,
            0.0005645491,
            -0.0150088705,
            0.0011973977,
            -0.03680587,
            -0.052354157,
            0.057397645,
            0.02952597,
            0.0018761046,
            -0.057699893,
            0.04351003,
            -0.040948927,
            0.004551772,
            0.038277593,
            -0.027240451,
            0.028202925,
            -0.052520987,
            -0.05319398,
            -0.028583894,
            -0.051017012,
            -0.004433371,
            -0.035144143,
            0.025491167,
            -0.054324057,
            0.004193086,
            0.058674816,
            0.015230272,
            -0.0040625483,
            -0.012636453,
            -0.034470916,
            0.048746657,
            -0.020961791,
            -0.049683217,
            -0.0076948404,
            0.0038821213,
            -0.030068334,
            0.025812369,
            0.013896104,
            -0.029487418,
            0.051922534,
            0.017570686,
            0.035358693,
            0.004186865,
            -0.03238519,
            -0.056173623,
            -0.025914825,
            -0.036801666,
            -0.026868321,
            0.048041392,
            -0.041466486,
            0.017748486,
            -0.02943392,
            0.043171477,
            0.055781115,
            0.039214205,
            -0.012431726,
            -0.058208648,
            0.032854747,
            0.018059049,
            0.01285721,
            0.058299635,
            -0.0124470815,
            -0.05740303,
            0.044228677,
            -0.044677533,
            0.01725452,
            0.027118694,
            0.0119958855,
            -0.03561543,
            -0.039127678,
            -0.03328463,
            0.051534403,
            -0.0056228526,
            -0.05267931,
            0.04192896,
            0.0091846995,
            -0.055114698,
            0.019724328,
            0.04793139,
            -0.043245785,
            -0.016381595,
            -0.036853746,
            -0.013014264,
            -0.0435565,
            -0.00092267245,
            -0.013418756,
            -0.030121151,
            -0.028052865,
            0.040799838,
            0.008698974,
            0.047672,
            0.03627156,
            -0.031650458,
            0.03858914,
            0.0014950894,
            -0.04386557,
            0.028766576,
            0.015543442,
            0.029709268,
            0.05423962,
            0.04266012,
            -0.05609801,
            0.0126253925,
            0.053140078,
            -0.011427466,
            -0.050740894,
            0.049361724,
            0.009114463,
            0.014633235,
            -0.005549729,
            0.009455707,
            -0.01398712,
            -0.044306096,
            0.015048053,
            -0.027538925,
            0.014046114,
            -0.036050174,
            -0.033303913,
            -0.034960978,
            -0.0126252435,
            0.045523103,
            -0.056474015,
            0.058739666,
            0.035145078,
            0.026396435,
            -0.053249475,
            0.00789405,
            0.052212883,
            0.043212097,
            0.0011840612,
            0.04235969,
            0.041831594,
            -0.030610407,
            0.04233026,
            0.026592072,
            0.019468535,
            -0.020238824,
            0.044152375,
            -0.008946408,
            0.029091243,
            0.020149592,
            0.0110298805,
            0.03466336,
            -0.017670397,
            -0.00012248755,
            0.049269725,
            -0.009872999,
            0.04602864,
            0.052532982,
            0.0033083186,
            0.03895135,
            -0.031679552,
            -0.05093911,
            0.019741897,
            -0.040314928,
            0.013443265,
            -0.027100213,
            0.013336744,
            0.05768836,
            0.054710615,
            0.02857418,
            -0.042044945,
            0.057990428,
            -0.02573502,
            -0.041134052,
            0.03906322,
            0.048535142,
            -0.014480911,
            0.022955578,
            -0.043151665,
            -0.052182,
            0.0432563
          ],
          "shape": [
            288,
            10
          ]
        }
      },
      "bias": {
        "id": "18c6c06c-cf72-4712-8869-3325485c9579",
        "param": {
          "value": [
            0.045273703,
            -0.01882654,
            -0.029553954,
            0.025498573,
            0.042998467,
            -0.041441843,
            0.0046678744,
            -0.03036759,
            -0.0050360933,
            -0.029766211
          ],
          "shape": [
            10
          ]
        }
      }
    },
    "batchnormalization2": {
      "gamma": {
        "id": "8e01c9fb-20ff-4209-84d8-7abe85d6c838",
        "param": {
          "value": [
            1.0,
            1.0,
            1.0,
            1.0,
            1.0,
            1.0,
            1.0,
            1.0,
            1.0,
            1.0
          ],
          "shape": [
            10
          ]
        }
      },
      "beta": {
        "id": "6b7ea124-5766-4926-8035-4fa6997df418",
        "param": {
          "value": [
            0.0,
            0.0,
            0.0,
            0.0,
            0.0,
            0.0,
            0.0,
            0.0,
            0.0,
            0.0
          ],
          "shape": [
            10
          ]
        }
      },
      "running_mean": {
        "id": "b50e19b6-7c75-435f-9952-8c43453e0923",
        "param": {
          "value": [
            0.0,
            0.0,
            0.0,
            0.0,
            0.0,
            0.0,
            0.0,
            0.0,
            0.0,
            0.0
          ],
          "shape": [
            10
          ]
        }
      },
      "running_var": {
        "id": "b94d7e3d-f82a-4a4d-ad1f-4db30ceb479d",
        "param": {
          "value": [
            1.0,
            1.0,
            1.0,
            1.0,
            1.0,
            1.0,
            1.0,
            1.0,
            1.0,
            1.0
          ],
          "shape": [
            10
          ]
        }
      },
      "momentum": null,
      "epsilon": null
    }
  }
}